//_q15 circularMatrixColumn[256];
//_q15 inputMatrixColumn[256];

//#include "DSPLib.h"

volatile uint32_t cc1=0, cc2=0, cc3=0;

#pragma PERSISTENT(weight_1)
const int16_t weight_1[9][10][1][32]= {{{{1246,-3657,-542,2430,-770,862,1566,-488,874,862,-1359,-930,3669,279,1448,3590,-4264,480,2319,-1131,-1648,1810,-1907,-695,865,-5278,-1420,1147,-4143,-553,4706,639,},},{{-846,92,1816,-3586,-1786,-41,-761,446,1251,-421,473,3016,-1546,-51,-737,-1870,2877,347,322,2364,-902,-1370,3419,-2374,-674,4264,816,-1271,4589,26,1401,3669,},},{{919,259,1729,-1764,-540,-2460,-3416,1231,4276,1227,854,422,-938,1613,-2554,-4572,-226,1509,-326,855,184,-993,-1175,-749,-5244,-1420,2924,2512,1523,-1987,-1305,-233,},},{{-3256,3788,-5039,-587,2103,-2874,-1180,2015,-1299,-3408,2101,-4307,155,2489,-1098,856,738,909,-1041,1969,-3475,-1934,-977,-1126,-2983,72,-2191,1152,1389,-3687,542,1087,},},{{3045,-5597,510,2918,-4893,1612,863,-808,-1992,3440,-6394,-1456,-114,-5392,1145,-2421,-637,-1622,878,-5499,1821,487,-6010,2627,-1567,-2241,841,555,-2378,-814,-3592,-5236,},},{{-6891,1441,-872,-3735,3490,1547,-4954,-2165,3726,-6751,4702,-1604,-572,4091,-1671,-380,-2174,2046,-1342,4900,-3995,995,3298,-5131,928,-1743,-3333,733,5963,-3861,1166,4209,},},{{4111,-1262,-394,211,-1792,3747,-1767,155,4018,4218,-824,-555,-42,425,2499,-834,-4156,864,2853,-164,-64,-152,915,4119,-1529,-2395,2245,4102,-2620,-1082,-3063,-2889,},},{{2180,-3521,2889,-1600,505,-4941,3428,1599,-2646,1235,-525,253,-3094,2548,-1660,857,-448,-2061,118,1858,-224,-1424,-861,-1675,-821,-135,-5716,-1135,650,1512,-1499,2003,},},{{-2319,-1435,4536,-734,-2612,1193,2555,605,2753,-4699,435,4372,-1111,-4278,-1951,337,-449,1394,-3134,-327,5981,2554,-7511,-1088,709,-2791,674,547,-3546,3847,2372,-7676,},},{{-3665,-1984,-2406,2552,-3588,3731,-2245,1074,199,-2609,-1084,-1184,-104,1200,1399,1399,-214,-2604,559,-30,-161,2176,-298,-221,-22,2003,-9278,6214,-2707,-2482,571,1477,},},},{{{644,-225,-303,801,-34,-1758,123,1302,955,1926,-835,-444,2012,-2278,-106,-204,-2085,-290,-117,1873,-603,2823,-3060,1650,-984,-1139,1892,4185,-1654,-1176,3529,-2110,},},{{-826,2200,-3663,-1506,2470,-2614,5424,-4858,2453,1183,3200,-2208,2837,-721,-2509,5525,-3308,-145,1999,1750,-4766,3867,611,1029,4465,-3296,1890,4295,1175,-6113,3282,1290,},},{{339,2271,-3814,-2589,-4297,3853,2262,-963,1632,-905,-1049,-1294,-1988,-1365,5125,2710,-1704,1836,-2474,-1334,-1167,-1940,-2309,3400,3385,-548,1434,-2129,-344,-1118,-2404,-4199,},},{{-1302,-559,990,-5579,-3652,1300,-6294,-201,3325,1,2462,1092,-4051,-1374,-612,-4702,1281,2226,-1804,4979,1489,-3425,-1756,1428,-5948,472,3621,-3269,4040,-268,-2559,-2001,},},{{1213,556,-2183,351,-4383,3836,-32,-2398,-394,107,-843,-4538,-1572,-2256,4398,-1847,-19,-689,138,-244,-3431,1448,-2834,5067,-1015,-2825,-930,-60,-575,-1887,-100,-2412,},},{{-3110,3926,-4517,-1667,1698,62,-6235,7406,-4524,-1858,2906,-5575,404,2456,478,-3125,6050,-3953,-155,-940,-6671,2559,-1300,1335,673,2780,2077,4681,-1568,-6387,4316,-1731,},},{{-311,1674,-617,3609,-2931,66,-3969,-3907,-46,674,-1464,909,3029,-2816,4812,-3827,2771,4181,2721,-1255,-786,3757,-5301,4380,-3950,4490,3054,1030,16,-545,412,-5405,},},{{-549,3471,3746,1355,681,1595,-3154,-2600,-2694,-5565,4374,2038,3337,-558,195,-5581,-1695,-491,-4172,3003,-722,-345,-1019,-737,-3834,-3681,32,-2077,1798,964,3430,-72,},},{{-976,214,-4320,4805,-4977,-3395,-6118,5844,1856,-1068,-496,-3276,1004,-1303,-2564,-3927,6015,2840,-2465,969,-3932,2612,-2726,-5501,-5645,6548,5746,-2761,803,-2487,126,590,},},{{736,-6535,4087,-360,-2312,-2553,-2664,635,-302,701,-1862,44,1187,2211,-693,2191,-3932,-2423,-1243,-2521,863,648,34,-735,4797,-5572,-1444,3363,-6004,545,3017,-1011,},},},{{{7175,-4047,-301,-727,-2173,8024,21,-3124,-5465,5896,-5596,-453,-1646,230,5630,-2115,-2851,-5321,4492,-2947,3364,-690,-509,9287,-2676,-2251,-5509,4641,-1844,2683,-798,370,},},{{1732,317,-3660,4507,-2105,-5110,3218,2420,-3170,5468,-2136,-3733,6710,-4244,-1357,2568,698,-3264,3042,-1703,-182,7785,-2855,-2423,3954,2260,-2453,3972,-5032,-3702,5637,-4338,},},{{-3924,2547,-6224,1487,2780,-1570,-1084,-700,-315,752,833,-6221,2101,2826,1403,1456,-3294,-3141,-1059,112,-2926,2181,1840,-585,1798,-5356,-1612,413,-3360,-3823,3078,1850,},},{{-2588,-967,-531,-2095,-6882,1755,1572,-2119,-2576,-1469,-532,-10,1419,-6598,2202,2742,-1105,-817,-1954,1991,-2248,-1880,-3725,2123,2878,-2677,-1627,-1781,3254,664,-934,-4386,},},{{-6392,2918,-621,-2004,-518,1852,-3742,2902,2988,-4360,258,-220,-1339,2058,3016,-5833,406,4132,-4741,614,2120,-1240,2551,1922,-5563,1375,4416,-4985,2958,-1309,-1154,2412,},},{{-242,2346,-4678,162,4403,-12376,4507,-2137,-4080,-308,-185,-2820,-62,4743,-9070,7754,-4476,-3108,1430,-188,1163,1694,4612,-2637,8837,-2501,-1303,3633,-4141,4611,4560,2879,},},{{2015,-1691,-2921,-3108,3228,1772,-2036,-4698,2803,893,1247,-1405,-191,5994,-1173,-2217,-1336,3111,-304,3307,-1816,1130,3989,-74,-3953,-2692,4443,-1351,3950,-901,-1618,3235,},},{{1472,4379,-1576,-1089,-8539,86,-621,2244,-2155,-94,2475,-1622,-1947,-6972,-1703,-391,1102,-2563,2391,5125,-1442,-1689,-6305,-1091,-3475,987,719,-1150,2919,-62,-460,-8170,},},{{2007,-808,-2797,2014,-5722,6173,1990,-6933,-3264,3704,-2659,-2230,2400,-5596,3141,3476,-8395,-3162,2395,-1109,-1546,97,-3515,2991,1088,-8443,-3847,2404,-5225,-1380,-3734,-4345,},},{{2501,-46,-1586,1906,-440,1131,-4343,70,2820,197,-2660,-1654,2115,-3445,417,-1158,803,484,874,-1325,-592,584,-3749,2875,-1770,-1331,-2666,1973,-4677,5063,-609,-7445,},},},{{{1109,1548,-3251,-2083,-243,1035,3767,-2484,-1018,2877,1792,-82,-2210,-44,1928,1883,-1551,-1294,2886,103,410,-2776,-801,3924,2391,-2525,-1743,1105,1722,551,-4218,1336,},},{{1574,-3446,4957,-4125,236,-447,2424,-7768,4382,1058,-2169,3532,-1665,-1760,125,3662,-8549,3552,3297,-489,5821,-5669,-1883,-427,1124,-6802,6893,2804,-1381,5222,-7985,42,},},{{-812,366,60,-4012,522,-5665,-3807,98,-3478,-2615,879,2964,-2836,950,-1128,-1414,-1070,-2927,-4521,-1642,1540,862,-1019,-2698,-1945,-2093,-3241,-3902,-809,725,1172,395,},},{{-301,-2072,-417,1222,1645,5139,-3368,-2175,1954,1279,1349,-2928,-481,2120,1416,-1117,72,1084,4583,-158,-7939,962,2540,3812,-2633,-2206,-1989,5723,4527,-12351,-274,1384,},},{{-2247,1546,-699,1310,-2766,3503,1593,-4319,195,17,1195,-218,304,-3636,309,2493,-1837,-62,-3001,2032,-433,1756,-2010,-946,1478,-803,517,-3024,1918,152,-727,-1154,},},{{8355,-3841,-7107,9640,-6552,101,-3594,1254,-2686,6392,-2822,-5340,4805,-4598,5803,-3313,1354,4216,2204,-4461,-581,4160,-7235,10703,-5795,-3537,8268,-374,-3812,3657,2050,-6233,},},{{-1917,-154,486,-5238,5697,-5451,-569,5723,-2895,-470,-1314,2769,-5892,3873,-6432,1661,7126,-4516,682,-1576,6159,-4333,3465,-5623,2628,8099,-1858,-622,15,3277,-3959,254,},},{{335,928,-7351,-871,-3334,4959,595,-1831,1559,-1236,-2243,-7629,-1723,-892,2837,2469,-1529,688,409,-1081,-9982,-1688,2298,1846,472,2221,-2552,-400,-944,-9161,-2814,2107,},},{{176,3433,8725,-4029,154,-1751,780,-1573,-5318,-39,2739,9003,-1581,-2840,-1678,-389,1085,-5839,1166,3259,6644,-3134,-634,1203,-2356,-671,-9048,-59,5339,9238,-7656,-858,},},{{2913,521,-6846,4015,-1125,210,-7688,4,-474,3559,-1216,1151,1943,-3543,454,-4420,-732,2851,3528,-761,4903,1273,-4652,7375,-3173,-2768,4611,1622,-5687,9092,702,-1979,},},},{{{-2587,-3127,3711,302,-5340,-493,754,-6525,7951,-457,-2249,724,-990,-2809,2106,-1391,-4842,8772,-2176,-1106,3644,-1113,-6518,2120,-2805,-5248,8595,-6554,-1080,5811,1021,-4743,},},{{4564,-5023,1700,-928,1156,3550,-2246,-3773,-75,1006,-2277,-1422,-354,-2320,1918,-1765,-3975,-964,899,-1921,-134,377,-1048,3011,1593,-4500,1249,843,-1875,1290,-2662,-1149,},},{{6538,-1659,-1237,-641,194,-379,4365,-6276,-455,3430,-524,-2759,-3244,-1445,-17,4347,-6135,-1067,4992,485,-995,-2578,-212,-1827,1170,-5805,-2493,2243,3735,527,-3388,-1700,},},{{-9564,6785,-3779,8602,3338,-4652,2991,3962,3674,-6934,7394,-3191,7592,1186,-4034,1321,1926,3077,-2260,5044,-2632,5625,2685,-5567,118,1163,5079,-4268,-237,-439,12699,1468,},},{{-1916,-1516,-2933,1979,1931,-3662,-530,-3376,1560,-3327,3415,-6765,-84,2271,-3746,-728,-3481,-1300,-476,3512,-6391,-1034,38,-6126,914,-2769,-424,-2975,4208,-5992,-900,-1104,},},{{636,-5741,2659,-1169,875,-325,-125,-9099,5629,860,-5717,3875,-178,1168,2535,-3018,-5772,6075,-1450,-1492,6101,-3138,1941,2987,-5928,-4389,9995,-4127,-959,7502,-6625,4680,},},{{-3252,6418,2109,-4740,2182,3635,839,67,4050,-5464,6800,-273,-4634,530,1641,2698,2372,2236,-2167,5510,-1698,-2066,1083,-525,-133,2957,1223,939,1309,799,-1126,-123,},},{{-10878,-1605,2281,-1284,1902,2685,-493,1030,220,-12592,-1824,2760,-351,295,1080,-2974,1200,1449,-12562,1879,4177,3,-2462,300,-2128,863,1400,-13121,658,2807,2264,-2915,},},{{8477,-3117,-2380,7086,1953,-4860,3763,-1254,-2053,7067,-4309,-3044,6769,2804,-6747,4751,1992,-2733,4113,-6618,-2634,3738,1777,-6258,6618,149,476,3038,-4523,-2984,6818,2771,},},{{8933,-7937,-3917,4047,-3324,3443,-617,-5593,-4394,4918,-7793,-800,-783,-3161,6468,-4392,-2862,-653,1393,-7534,4058,-1599,-3693,11735,-7533,-3804,5736,-5123,-5795,5869,1145,-5739,},},},{{{1361,1819,152,-1905,-5195,8641,-8750,-2274,-2941,1510,3902,2134,-623,-2927,8732,-8922,-408,-3255,807,3815,2649,-646,1072,8288,-5863,-1309,-3625,1536,3985,4751,1381,-211,},},{{-1715,-344,-3431,556,519,-4311,1120,-833,-1374,-1075,-435,-1142,-800,2790,-3069,2424,-1984,1024,612,-2272,-2920,991,-874,-316,2289,1082,570,-156,-1169,620,-1375,-2637,},},{{1788,-9294,-87,-91,3758,-9561,751,2913,-2123,697,-6669,2474,672,5228,-8628,597,4402,490,-995,-5999,758,1401,5124,-10418,-1268,4997,-799,-2561,-7099,-1070,-1322,4253,},},{{-2746,12769,-3935,2989,-1137,-1323,-452,-3327,-588,-3147,7819,-2818,3539,273,807,-439,-7584,247,-1584,6094,-2374,3221,-2304,-2041,2880,-10738,-890,338,5487,-1688,2130,-4072,},},{{-3531,1121,-1564,-4399,1446,-3633,1498,1149,-2557,-6663,-37,1199,-3556,1251,-5780,2107,19,-1093,-4487,-1131,-631,-3850,38,-6790,3147,473,-19,-5868,-3295,-780,-6145,639,},},{{-4523,-3500,906,-2532,-2308,-225,-5162,-154,2419,-4998,543,590,-3646,-782,105,-3487,941,4279,-3138,4259,-2082,789,2190,-76,-4884,1206,2172,-5183,6251,-4725,-1186,2950,},},{{4602,1278,-1472,-116,-400,-295,2557,-491,-9014,6267,496,1375,94,824,-3077,4180,-2515,-4380,8785,3520,-337,3398,7,-3201,2679,-1037,-4411,6926,2403,-4108,798,-2830,},},{{114,-1652,4181,318,-1461,1068,2834,-11806,-81,-129,-1780,6568,2511,2929,812,1738,-10693,1715,-2348,-1162,5142,1656,302,-1516,1180,-11626,4585,-1383,-344,2110,4200,656,},},{{1480,1638,-526,-7284,4753,-1241,-4488,-4747,7584,2060,2362,2929,-8417,2764,1618,-3041,-6383,6913,3480,425,2225,-3711,163,-1620,-1391,-8825,3648,2607,374,264,-2395,-3346,},},{{-1871,851,2686,-6733,-8159,6272,4217,-14938,10306,-1727,4338,2546,-6845,-5810,3506,335,-9936,9564,-1174,3155,8845,-8498,-2445,-935,415,-4232,6771,-2675,7288,14566,-14427,-730,},},},{{{-2790,-3934,2379,-4801,-2172,4415,-4132,4144,-1590,664,-2147,2834,-3431,-2587,3140,-2396,2670,309,2024,-4923,304,-3433,-1985,14,817,3520,-4607,126,-4172,2021,-4846,-1951,},},{{4351,-1396,-2852,3567,-5021,1919,125,-3508,-962,2465,-3470,-3341,3813,-4582,4127,47,-4452,-2550,2330,-3156,-1781,1767,-5095,7489,-670,-6652,-1412,2064,-2092,421,3289,-4262,},},{{1022,871,-187,-12255,68,4008,151,1886,-7992,-3650,-677,2880,-9379,264,970,-1049,3179,-7952,-1124,-28,4442,-9047,586,1780,-914,1689,-8136,-2784,1528,3009,-4797,2888,},},{{4207,-90,-2982,288,880,-8074,2137,-1184,7930,5050,-747,-728,-1389,1257,-10312,2154,-1499,5611,4275,-1558,1427,-1531,-1020,-8690,1247,3011,7400,4916,2118,3482,-981,-4126,},},{{-619,-2126,12,-4995,2266,1839,-1054,-6477,595,591,-2630,1577,-5454,1949,1274,984,-7706,656,577,-3732,826,-5944,176,1170,-1008,-4211,-536,994,-3240,-715,-6971,-1412,},},{{-82,1373,-2661,-2999,5836,732,-2973,-2252,-1307,-219,206,-1025,-2622,4935,2292,-5369,-589,-2770,219,-1832,-1756,-2596,5540,-2296,-3177,478,447,3003,-752,-961,-3552,5128,},},{{-4088,-6684,720,-337,-2864,-3805,857,-5279,6581,-1238,-4062,-1633,14,-3415,-1596,2658,-2781,5243,-2939,-3320,-3638,167,-2262,3984,-558,-2498,6269,-2870,-5547,-4277,-1632,-2786,},},{{-2279,1769,2557,-2699,-3,-13067,3225,743,2909,-1359,1075,1698,-2041,1633,-13485,1613,-2198,3874,-1424,-1309,1338,-1967,1316,-14544,-210,-3128,3816,596,343,1056,1150,-1331,},},{{2792,1702,-8174,-786,-584,-5889,3174,1797,-6390,694,3059,-6881,93,-2789,-8300,3777,2050,-4936,-1351,2436,-1947,-3153,-963,-8202,3732,1542,-4240,-293,3267,-1689,-3376,-565,},},{{-112,-2560,7005,-11371,-6689,15257,-11321,3548,-792,576,1651,-72,-5044,-6082,10179,-8011,7146,-1429,-2778,3716,272,-2824,1484,1374,-4870,11777,-2085,-4245,3762,-1622,-4404,4507,},},},{{{4269,-5171,6905,-1513,3648,860,-1485,-2407,-1891,4991,-3023,5547,-483,727,1037,-968,-1731,-571,4006,-3643,2933,-460,-1263,454,-3086,1447,-2570,2582,-3195,3685,-1794,-1946,},},{{-333,-5217,3344,-5046,709,-1634,-3240,-2669,4427,-379,-4066,1419,-6421,-636,30,-3889,-3594,5623,1012,-4985,2246,-5188,3806,699,-1942,-2932,4472,2143,-2034,-308,-6986,3081,},},{{-644,-7674,1735,959,1997,-763,-8826,1386,-2879,-997,-7311,1716,990,198,-1022,-10281,2030,-3970,1186,-9021,1018,3091,-823,-2097,-8411,-280,-4835,1786,-6093,682,3351,-712,},},{{6277,-3054,-1680,1558,1560,82,2999,1646,-2061,4814,-1460,853,-2731,3543,-903,2999,-548,883,5781,-811,2878,-3378,2879,1298,2447,-254,2492,3609,1172,1525,-4295,803,},},{{272,-4700,2389,-350,2433,-1251,1659,1472,-846,196,-4398,262,1518,1579,-3972,3690,3262,-3536,388,-6121,1261,1900,1205,-3435,1404,3334,-3847,1661,-5876,3965,1068,-1487,},},{{1077,241,233,-1020,5478,495,-3310,243,-687,1017,-627,955,736,4722,1821,-3729,-2135,-1403,1139,1578,-2952,-310,2773,-373,1509,-3677,-3757,2485,-599,-3734,418,1534,},},{{-2252,-320,4228,1681,-4279,579,3318,256,-4292,-1445,-1205,3074,3713,-1919,49,3985,2900,-603,-391,-541,2085,-489,-5441,228,5416,1194,-1574,-853,-3202,2102,-424,-3336,},},{{47,-2820,31,-10681,341,-1881,2965,2305,1107,-367,-840,1622,-9023,1596,1569,552,-395,3517,398,-1438,1447,-11451,479,1755,-199,-3137,1216,-1627,-1640,2061,-11081,-767,},},{{-2738,-167,1420,3063,-5603,-1864,-3802,-313,1666,-4299,827,1651,2262,-5415,-983,-1882,-1046,379,-3318,2274,-1203,3993,-4806,-2718,-2817,-1840,1511,-1943,5160,2746,4022,-6671,},},{{-7927,1410,5870,-6849,4401,556,1990,1883,-4244,-4724,2456,3172,-6907,3963,-4607,2283,3576,-6259,-4790,947,-2905,-4337,2082,-5206,2515,3136,-10416,-2711,3305,-5543,-6389,3349,},},},{{{-7915,-2684,124,-3090,-2240,731,1804,-2663,1915,-5336,-3908,514,-3853,-2944,3753,1077,-2560,4763,-3390,-4747,2674,-3411,-2642,3389,-751,1213,5579,-3739,-1031,5908,-4989,-3326,},},{{-3426,-540,3783,-5071,-1679,-2473,-1793,-4808,3890,-3248,928,580,-2398,25,-1584,1576,-4299,2910,-2655,2927,4267,-2574,408,-2073,65,-4025,2139,-1692,3199,6149,-4955,-1867,},},{{-3020,4363,1509,-2151,-3579,1260,-3266,-1029,-8535,140,2691,158,-245,-6198,710,-1714,1580,-7340,458,2458,-657,2331,-4959,2771,-856,173,-7657,2969,1773,-1041,182,-6092,},},{{1358,-2717,-2206,3077,1009,-883,4289,30,-577,-38,-3922,-2410,4513,1789,1859,-409,-816,-8,-1108,-3236,-1850,4734,259,1329,2847,-620,-1863,-2773,-4208,-5156,5894,-723,},},{{-1008,2046,-503,-5244,623,-236,-5993,-37,-1875,-1116,-1526,-439,-3493,3828,-528,-4261,435,-2310,-520,-466,-2071,-4186,148,-1790,-3682,565,-5027,-2773,-526,-2644,-5311,-1434,},},{{-5438,133,-4402,-6522,4530,-3531,-425,2643,481,-5047,2222,2035,-4431,1622,-4829,3736,572,-365,-755,1508,4174,-2693,3567,-5194,4859,-1855,-1523,-232,-65,162,-3752,2518,},},{{-199,-3215,6807,-7534,3108,326,1218,-996,5177,-1133,-3538,6924,-5964,2036,761,-434,-5437,6597,-2974,-1796,5157,-5146,1616,1780,-3474,-5397,8871,-3250,-866,1296,-7988,4690,},},{{-1396,-8165,422,-1791,-2755,2956,-123,-381,-3325,-1340,-6988,-487,704,-4398,4837,110,179,-493,-1800,-6369,-2013,2013,-6331,2965,1516,1949,374,645,-9240,-45,-336,-275,},},{{-1122,4197,-3741,553,1676,-2364,-7004,4248,488,-254,2365,-3441,2544,1971,679,-5580,1629,-452,-2862,-236,3163,-1063,2582,-24,-7695,3371,1213,-134,754,3614,413,1426,},},{{-6623,10326,-1684,3807,-6302,3487,-3662,7046,-3391,-2455,5378,-869,5209,-2847,1573,2990,6423,-3483,4939,-359,215,4622,-2561,-1476,4688,7087,-5190,7474,-2859,194,5510,-6351}}}};

const int16_t weight_2[10][16][1][32] = {{{{-937,1510,2411,-1384,-607,3601,-874,1258,-453,-1324,1647,-1131,-1691,493,1764,-2209,-784,1949,271,-774,1852,-2591,-1734,4351,-980,2574,510,272,2175,1412,-1173,-2973,},},{{-4101,2842,294,-4221,-4165,-941,3913,-1656,-1423,-1589,5794,-47,-2695,-3531,984,1825,-3838,-361,-3612,1561,-2354,-2221,-669,1879,3780,-3572,-2386,-4147,1751,349,-1140,-3612,},},{{-1738,-828,2179,-195,-1034,-2032,-893,3347,-2368,-887,276,1658,-394,-1765,658,-1749,642,-1817,292,-530,1762,-1439,-788,1837,-2479,2232,-2923,3512,-1978,623,-434,-173,},},{{480,-81,-567,-1756,1931,2074,1898,384,2516,-1387,-218,824,2391,1015,-947,-1320,-1695,2653,871,106,-2879,2138,1847,426,2273,-190,2371,1418,3475,-124,-33,713,},},{{3252,5075,1778,-1013,1784,2111,235,-1334,1229,415,2446,284,1816,1460,1023,1117,-1400,-1130,2766,3185,1605,975,895,2001,865,-2116,-3963,2602,2800,2065,-4180,1710,},},{{-2635,-2798,711,-923,-4166,514,-1026,764,-1010,-2104,-1608,-1664,-586,-2902,-905,-1810,-598,-1400,-833,-1081,-2324,114,-3876,-554,-4425,1705,-3234,-1444,-1572,-2771,1729,-3005,},},{{2092,989,264,1171,1310,1348,2576,855,-33,1563,-1733,524,-400,1437,1276,2564,-1182,1166,2641,-202,892,639,1647,876,2265,-197,2161,1692,1817,645,1084,2910,},},{{1244,2670,1313,-1046,-832,2775,660,-664,105,-721,-1151,1895,1237,321,2291,-2446,1192,-1437,166,2754,548,-431,-1681,5610,-1128,-1922,-2094,-749,2915,-987,-155,-4108,},},{{-4601,-748,5913,-2796,1170,-2697,3503,1653,-565,2392,-3241,4200,-2659,2548,-1215,94,1062,-1283,-1751,-1612,4147,-982,2749,-496,2614,2970,-1680,249,-1323,3001,-3358,2295,},},{{2032,-738,3738,-2209,908,969,1533,4233,870,900,2319,1530,-1335,1890,1839,-1023,4423,1330,2153,-594,2191,-1051,4297,2863,-1874,4623,-364,2670,583,2119,721,3050,},},{{2105,3514,-1068,-1503,344,-499,-170,1465,-366,399,-449,12,-1041,69,1274,-1245,256,-1885,-173,957,-2395,926,-2122,1789,1251,110,-1151,433,1191,653,-3356,-1036,},},{{-2451,-2718,-1035,-2661,-1753,-1720,-3176,-2674,-3164,-2370,-3510,-1249,49,-1316,-2939,-3106,-1377,-317,-3594,-427,-2649,-4023,-1571,-1922,-1348,-416,-4397,-4760,-4161,-4040,-2678,-1090,},},{{434,574,-506,1247,1902,-2287,-683,-1400,1340,-1880,-1151,-549,-999,603,-1338,1037,-599,1761,987,143,-1609,-1269,-1089,829,-144,1598,15,307,533,-3133,1007,-1285,},},{{1552,1385,1166,-597,-306,4374,1776,-204,2823,-910,1464,-677,269,-623,2407,2423,-1597,-556,1995,3431,-259,-600,1956,1990,190,1161,-1017,1528,5018,1934,171,-1467,},},{{589,45,2213,852,-436,-4320,2717,110,-3490,1903,-1111,990,-2838,1314,-1966,687,2416,-2485,1450,-167,979,-1153,664,-2887,1762,717,-2248,1120,-78,1512,608,837,},},{{2265,-2135,3177,-98,-774,1240,-423,1688,194,2118,393,2131,-548,-641,1552,249,2408,-2596,1662,472,3210,58,-582,-492,-530,-191,734,1898,1648,1034,-946,1120,},},},{{{-1978,2483,-656,1430,-586,-415,2041,504,-3287,-1364,2027,-149,405,1464,611,1810,-2496,-2446,-198,4282,-1101,344,-105,2030,-526,-1634,-1346,-993,2366,2029,568,205,},},{{-4860,-2745,-762,771,-3541,-1896,-749,-1503,-975,-3471,-2055,874,454,-4523,-1253,-636,1761,-5325,-5042,-2465,713,-1044,-3214,-2505,-23,-1450,-3241,-7207,-2059,838,-3002,-5535,},},{{-2204,-1387,245,-2426,3072,126,-50,-198,-553,-319,-103,160,-883,-144,791,2203,-2750,179,-993,1227,1789,-1376,3006,-2256,-32,55,-510,1101,-434,-416,157,1547,},},{{325,2518,531,689,-2745,1772,3148,439,40,348,-241,-1173,2515,-2397,2208,2642,-1334,1547,-207,353,598,-894,-57,2625,5836,-3015,37,3118,4114,300,-1888,1012,},},{{1938,261,204,1425,-1171,879,1878,1274,478,-1959,2518,-491,-259,-338,-424,1269,2014,129,675,1279,803,-39,1195,2844,1138,199,-1475,244,4427,-729,-3965,1422,},},{{-196,-3791,-414,-3408,-269,-3547,-585,-2145,-2379,-213,-737,525,-3604,-1617,-678,-1554,-2950,-2613,2886,-596,-1925,-1920,1405,-2315,-3271,-3158,-326,-328,-450,-4348,-5562,-305,},},{{-1503,3070,-399,42,1024,2710,3176,-1440,-978,-209,4639,2755,873,117,-367,2315,-1341,534,-899,1294,278,1448,1075,1860,3680,-1312,3349,-1537,2725,399,-2078,1652,},},{{-1762,3026,-1954,2778,-893,3404,707,-712,-124,-348,1480,-758,-264,914,1908,1833,2054,-876,-76,2391,-1568,51,-1542,3934,1989,-643,-1268,350,3885,1087,-2414,-1183,},},{{-1450,-1353,1477,2811,1428,609,1556,-986,248,-836,-95,1418,777,-1894,-1284,2744,-1657,-313,-2529,-1044,-676,1798,1050,-1023,2178,-1903,1668,-1918,2442,3398,161,1159,},},{{1696,2247,-871,1035,748,1842,2958,-317,332,-1215,1925,58,797,-94,2636,1761,1229,-1088,-1103,994,1675,2225,-1532,2686,3036,-503,666,71,5417,176,1182,1851,},},{{-2691,92,-2271,813,-2106,-2032,232,-1101,-1748,-2475,181,806,37,463,-291,969,758,-494,-279,-118,1544,240,-1894,-1210,3712,-1628,-620,-1038,784,-1188,-701,129,},},{{-5107,-3134,-1242,-607,-3066,-3061,-3996,-1192,1988,-4185,-2151,134,140,182,-1304,-3187,910,3199,-3826,-3309,1013,501,199,-3684,-4520,258,2678,-5112,-4241,-760,-1910,-963,},},{{-2127,-828,225,-1908,-309,1054,-1502,501,1781,852,1572,1416,-1625,1054,861,-368,1093,-925,373,-577,-1506,-1558,367,-708,-1881,437,39,-52,-580,425,-1630,-1596,},},{{454,552,2380,294,1231,82,1549,-476,-134,2853,-1457,807,2490,44,837,-231,-167,439,1436,603,-507,-2054,3073,44,-538,-2787,-681,933,3458,1691,-1378,223,},},{{-535,2865,2902,-411,-802,188,1469,-820,2351,-1334,-347,4348,2320,-1830,2950,1149,-1550,1427,676,-2094,2479,2561,23,1139,-371,1378,-484,-1787,1698,2693,1619,-2020,},},{{1598,2615,-259,1151,-1046,1022,1959,-1431,-1573,-314,-1099,753,220,-421,1411,-369,253,387,-1038,1229,-172,-497,-2609,-79,634,1989,1837,642,-1289,1389,-1214,-1576,},},},{{{-467,4878,-2963,3016,-1142,-3203,-560,-1523,-3687,3439,1972,-2580,4065,-842,392,-1351,-981,-2557,3569,4847,-858,1485,-1874,185,-977,70,-1562,1151,5226,-318,2329,-1846,},},{{926,896,2173,2551,4510,-2552,429,1919,-4311,-843,-3179,-2254,2531,1678,-6951,551,-898,-1784,649,-1496,3430,572,3381,-4820,-476,4030,-985,2498,223,3853,4540,4414,},},{{-1277,3844,-1148,311,1830,2436,4610,420,787,-3325,4160,69,-403,590,1433,4324,-499,1437,-1443,4977,2138,-102,-471,3773,3627,1005,1502,-3262,4175,3063,-568,122,},},{{1445,-4188,2126,439,2284,-700,1944,2565,-2514,1144,-27,-528,797,-1135,1699,-161,3548,-4684,1182,-572,-1663,136,1427,193,3199,1625,-1264,-1595,-1037,1671,-1379,524,},},{{4231,1808,1535,275,-440,645,-1753,-1471,-6803,6015,-1020,-2493,-151,650,688,-1941,-1922,-4903,2437,1029,-183,430,991,1571,-4959,922,-4427,3950,-510,-3086,3718,1115,},},{{191,5951,-3003,468,503,-860,3876,813,-1767,676,5630,-2562,-2059,2694,-869,4259,639,682,2594,5393,-2817,-2947,-382,-2405,5179,-640,-1220,1656,5029,-3418,-4147,2593,},},{{-2643,441,-200,1177,-1112,-900,-2788,2536,3012,-2561,2179,-569,-225,-907,259,-3548,-359,4377,-5101,2334,1379,198,-1732,201,-3296,2141,3357,-5976,2863,2607,-1295,-3254,},},{{-2648,5277,-3246,2802,-3531,-1331,-1331,3429,-2466,-922,3283,-3040,683,-3438,-431,-1464,4121,-2557,1357,1147,-2965,1819,1,-1387,-513,5126,-1170,864,6275,-1062,1744,266,},},{{-4423,6221,1216,888,1917,1696,1098,-1048,1352,-5743,4701,622,1221,13,1286,-1194,2675,1687,-6108,6154,568,-151,96,2307,1514,8,1476,-5271,4414,324,-1044,122,},},{{-536,2998,550,856,-2313,-3028,3206,516,-541,2153,3031,-133,1778,176,-766,219,-477,-2176,1946,3284,567,-880,-2561,-3217,-155,-75,-3311,1307,4322,-1318,-371,-2799,},},{{1334,-893,-727,798,638,-2364,682,1377,-6815,1819,113,-1257,2696,3100,-1723,1347,976,-5078,1204,282,1306,2114,4099,-713,2136,-2282,-1982,-552,2873,-1536,3004,248,},},{{-1421,162,3468,-465,325,815,-4049,5382,4173,-3835,61,5109,-2786,2150,2519,-4411,5458,3814,-3504,1492,4568,-2455,378,1873,-3041,5291,3626,-2671,2556,1294,1291,2952,},},{{-1259,1469,-1645,-525,792,1876,53,-1263,1649,-1479,1536,-549,774,34,-1596,180,1445,-1106,-915,1060,-2318,1294,-1165,-1528,1966,743,1658,196,1330,1576,516,1987,},},{{2939,-1144,1498,346,-2986,-2220,2864,1175,-3844,2403,-1820,-630,1709,-1190,-845,3284,-1062,-3605,4187,-4756,-1606,2238,-2424,-2624,1684,1053,-3822,3361,-3312,-1617,479,-1179,},},{{-5177,5732,-1092,535,-4484,-189,-2839,-3220,4960,-4632,4660,2492,-919,475,-3254,-2144,-1388,3237,-1239,3870,763,-660,-1224,-2312,785,-2659,4782,-1743,3774,1292,-1577,-3491,},},{{-204,1799,666,-1418,63,2418,-51,-243,0,703,-1236,-1318,-1390,-1438,678,-959,-3830,173,1131,603,-37,-2267,-1418,2028,-47,-3857,-296,3324,-2039,-953,-1220,-348,},},},{{{1041,-461,513,1110,6770,-2864,-656,-3042,502,375,-1557,-1613,761,3198,-2449,1364,850,312,1895,824,-2652,2069,6007,-2936,467,-1302,-76,2674,-1441,-94,1011,5765,},},{{-1604,-1447,-5131,1086,-2909,410,-183,1333,-8850,-2954,0,-4547,2578,-4305,522,-1765,1220,-6167,-2716,-723,-3255,2711,-626,-1489,-1443,-1160,-5085,-1409,368,-8283,1525,-3152,},},{{-2225,527,-2246,-3138,-115,3153,-498,-3191,1617,-2610,-494,-365,-2531,1721,1445,-1034,-1076,975,-3209,-530,-1512,-5014,719,664,373,-3442,3337,-290,-296,2342,-2576,1824,},},{{5592,4549,-980,-4360,1272,1311,4048,-971,-1661,4771,3362,-1661,-3519,280,801,2601,-36,-1822,3723,644,639,-2442,-2166,-1011,3236,-149,-2833,3230,552,-1612,-3300,-448,},},{{3719,-63,-4756,5805,-94,-755,-560,-2718,5292,4120,-845,-3495,3421,685,-927,685,-1866,-375,3056,-1203,-1158,-718,-346,-3236,1851,-1409,-1134,2110,-3527,-2691,2502,1430,},},{{4898,-2568,1538,-895,4729,120,-2250,1028,-888,3447,-1386,1617,-411,4140,1639,-4907,2748,-2097,5275,-2130,3562,-1585,761,-248,-2675,1698,-292,5650,-4232,1769,-228,1655,},},{{-2623,3237,-1000,-292,-775,2929,-3334,2103,746,-1719,2268,-2840,795,-860,2458,-3957,-79,1123,-4440,4771,-2043,1041,1442,4438,-3523,1186,3549,-1804,4531,-1447,2332,-1483,},},{{4000,-1029,-3879,-1693,5584,-1608,-532,-2751,1966,-1397,-1626,-3522,-681,2399,-2541,-828,-2931,-529,-360,-3088,-2871,2052,3329,-2859,-3916,-17,434,2283,-4836,-2108,456,2397,},},{{2958,3543,968,-2015,5146,5255,-1147,-559,701,2555,558,2813,-1487,3929,3038,-1258,-1035,791,416,1092,2120,-2184,3171,5113,-1560,-361,77,-165,1344,4234,-562,-134,},},{{2651,-410,-1996,-306,1759,-140,1255,956,3785,544,-1313,-438,1006,4750,-2844,-561,-748,2163,1303,-184,655,1245,2624,-1418,-579,3111,4583,1374,-876,-1974,2216,1345,},},{{2884,26,-2408,-18,1595,-2678,-624,-584,2145,-1746,-1624,-216,2214,-156,-2043,565,695,1871,-417,263,1407,1225,3954,-883,2904,1166,124,2576,-2057,757,2096,2892,},},{{-4007,2,3187,-3631,-3106,3576,618,2874,-2294,-992,1109,3848,-3099,-2274,3239,1566,1524,-3995,-3662,-1969,1931,-3821,-1228,114,3890,-529,-3152,-3054,1983,4778,-6002,-4196,},},{{249,-1833,2129,-1100,1536,1138,405,1027,-1230,2599,255,323,-1143,1028,687,2199,2008,423,2078,-1982,-222,-2783,177,1164,2228,1844,-1129,963,-2156,-298,-834,1020,},},{{4003,1878,1081,-1732,327,-2233,313,-9,261,2594,1442,1121,-300,539,-302,2693,-1462,-2216,2427,3371,2202,-537,-505,-2173,3229,966,-2006,1729,1074,383,2462,-547,},},{{-2006,634,-1986,3167,3319,3029,-4423,969,4249,-2171,-1069,-907,2962,1266,2539,-8110,488,2311,-1998,269,-3649,3550,2731,1637,-9878,793,4506,1351,-1082,-2188,5714,249,},},{{-3151,67,-1954,2677,141,-772,-1434,2455,-2301,-1127,212,-2056,3324,-321,-60,-779,1789,-3224,-2698,-567,588,3344,1682,2760,-1296,2244,-2045,-793,-897,-554,3816,2052,},},},{{{1219,-2438,-818,2426,3784,1747,-2326,552,-1033,283,1483,-2264,706,-2264,1503,-230,1274,-1233,-801,1027,-1397,657,675,2754,-253,851,432,1651,-284,457,-27,-51,},},{{1310,2975,591,-350,16,4225,-1308,-1595,887,1800,627,2234,-296,1827,2406,-1087,-1260,2770,1692,715,4486,2008,1347,4340,-862,-232,1057,404,-2041,3644,1084,-61,},},{{-3627,1195,1571,2663,2300,-988,253,2466,1281,-414,-778,2282,3209,-1339,-510,-919,-404,531,-2647,-411,1605,-339,285,-1004,-1582,2495,4340,-1528,-2727,1198,4326,759,},},{{933,879,1503,3407,-3030,-130,841,2717,-1061,660,1354,966,3129,-1455,-851,-1381,3571,-230,-220,1062,1390,2796,837,688,-2494,3316,867,-1103,-690,1938,-291,-300,},},{{-986,2404,252,-3273,703,2479,-7132,2795,5349,-243,2760,-1300,-1607,-709,2777,-4401,-1093,3634,-1982,1099,2786,-2847,-344,-108,-2312,2710,1485,-2748,792,1682,-514,-180,},},{{-4109,-358,2116,-1454,-70,-832,996,-154,2189,-1072,2561,2212,1116,265,-1532,623,1415,623,-2222,3492,1436,1060,1863,691,-1451,1831,4992,-2274,1595,2480,-2259,3878,},},{{-238,1280,-62,1622,-145,-1241,1416,-3281,1847,-45,-267,-2398,2057,795,-386,1558,-1652,2690,-1919,-1086,639,1543,-62,-693,-780,-2426,3285,-2994,423,-1115,3153,3226,},},{{-776,1297,-2992,253,864,1062,-3189,-47,-353,-668,1449,-2334,-1925,196,1012,-514,-370,-407,409,844,-2624,-3526,340,-171,-2409,-1149,-381,-1260,748,-833,-2954,2719,},},{{-1057,2724,1764,4129,163,392,1317,-613,2902,1295,-235,4100,2652,282,457,1229,103,3136,229,1571,2068,-937,1279,-2466,3125,-2541,2121,281,121,-137,-822,2061,},},{{1241,-2271,579,-1910,3100,-3227,-241,-1352,450,374,-1724,-1658,-1578,857,-328,1739,-345,205,237,-2796,992,-3072,-100,-4269,2014,1040,2094,-2682,-1010,45,-2538,-43,},},{{-175,338,-1463,-5,28,2071,-3702,710,-945,-843,-1772,1224,-345,-415,49,-2503,641,-2529,2035,-2255,774,612,-115,-1665,-4497,-143,1600,1229,-2990,2616,-2262,854,},},{{555,-189,-863,2846,-405,992,2969,-1837,3070,1091,-794,1393,2470,1954,1567,1670,983,-239,-774,-326,1492,3010,-1237,-173,2073,1821,1087,580,1543,-1192,1968,-1182,},},{{-705,-1875,-758,380,-1095,561,-1074,-191,-389,-1162,-228,604,374,-1728,283,69,549,595,-513,1344,-983,2256,-404,1054,1711,2174,1131,-2430,1948,-1103,708,419,},},{{-3382,2560,-2256,2016,-1051,333,-1534,787,1561,-2962,285,-2792,1497,-1463,1432,-2448,372,-2668,-3978,1594,965,-3243,-2023,669,-3308,2920,594,-1939,-202,1218,-1097,2571,},},{{3077,665,-3563,1618,681,-2964,-943,-4716,1822,2541,-3153,-1467,-9,350,-3632,4601,-3731,-1353,1863,-1312,-960,-884,-1651,-4541,3156,-3198,59,2541,-3861,-2555,793,2257,},},{{-1476,-2712,-831,2454,-590,-1761,-1822,764,-1953,847,-2073,-2755,2524,120,-2576,1387,2548,-1149,743,1329,-844,1313,2661,377,-1883,3378,-158,-463,828,-2756,114,2017,},},},{{{-1359,-1797,-3826,969,3176,-2076,3463,-992,1218,-2281,580,-946,1134,3335,-1269,69,61,-528,-332,-601,-1311,1297,2375,-655,-1833,-823,240,-782,3608,-2591,4145,6601,},},{{-3302,-3182,-1937,-4001,1468,4846,-6470,2509,1314,-461,-2343,288,-1347,2016,1784,-2676,1707,1635,1078,-3030,844,-3207,1010,3671,-5280,1618,-1804,-876,-532,1527,-7608,1325,},},{{-3868,-1274,-2192,-3323,-1188,-1500,-179,-2387,2525,-2930,2847,912,-1069,430,1676,-750,-1233,522,-700,-1574,-38,1705,-922,-555,624,-1731,-821,2803,-1414,-520,-200,757,},},{{2180,2250,1357,-344,853,770,203,-453,946,-9,-2266,309,-185,-3128,-1127,-458,-2912,1904,-1341,709,-1615,434,-2262,1915,476,-2991,4142,610,3586,1665,4871,1428,},},{{3239,1807,2006,1219,6320,873,1417,4718,1406,-1213,2366,694,927,1762,188,-360,2557,4351,631,699,1544,1218,2681,2164,-2511,1977,7812,-1733,13,-117,-1674,1930,},},{{-3162,-2714,-2052,-4520,285,-3627,-1139,-1841,-859,-2895,66,-1161,320,59,-620,-643,-1588,-666,-569,-622,-254,-1916,-1435,-3502,483,-3524,-1419,-5705,-1487,-5535,-3709,-4608,},},{{2213,4601,2139,1367,345,1964,-1177,3465,500,1205,990,299,4336,2697,-78,-310,2937,600,1569,122,1244,2804,1542,2752,703,4461,366,1501,1589,4074,4090,4498,},},{{811,-2934,-892,775,647,-248,1054,-2690,-1155,456,231,-1379,1891,2160,-2243,-2688,-770,1130,-1015,-763,-2329,-138,1616,-1392,-3837,-982,-1479,160,-1865,-5246,-429,3929,},},{{-3331,622,-7140,-4404,-2221,2675,-2218,-976,-1400,-686,1903,-174,-2999,1000,1906,-1472,-159,-2654,-2656,424,-2189,-2997,-274,-150,-1227,320,-3106,2545,-683,-611,1397,-1059,},},{{2655,-515,-1229,3826,1600,2809,-648,-708,4259,3584,-1395,-667,3886,-1513,1027,-861,-625,2227,315,-395,50,2349,-1526,252,492,-1142,4455,3036,688,3493,4949,4116,},},{{3268,-774,316,2195,1561,-1279,-998,1098,2533,1989,-2871,2046,1694,-255,83,-918,1336,3681,195,-1308,-494,3641,2766,2271,1392,1448,3775,606,-509,84,5818,1973,},},{{-4338,-628,-4671,-3185,-899,-3462,-356,-1754,-2441,-1323,-785,-2448,-722,-248,-1918,2233,-1350,159,1983,-1533,79,2913,-2085,-2210,486,-2608,-2557,-1713,-3866,-3792,-1224,-5277,},},{{-1583,-1853,-335,-1126,-847,217,-925,-1049,899,-2053,1363,-105,1173,-122,-233,-1013,-395,1968,-1302,1516,333,271,1854,-131,-1670,-23,-1322,-2265,-594,-2318,-1065,760,},},{{1396,3546,4805,696,3413,4859,360,2834,3798,415,1728,4068,-699,626,4021,-3005,1079,5387,-1886,831,557,2088,385,2967,-1096,1324,7039,241,1699,2415,2118,1978,},},{{2571,1983,-2204,-155,-2251,4904,-498,-1901,-580,157,1342,-633,2097,149,3322,-786,965,-1848,811,-1326,-1412,-673,708,-155,-2100,-3606,-2636,-636,-1784,455,-3660,2406,},},{{-620,1858,-446,-575,2186,558,339,-646,2056,-1460,1432,781,-1593,800,-801,-840,564,2543,1518,433,1049,-1741,2625,-1191,1114,-2397,1558,-682,230,189,447,2494,},},},{{{-240,-3680,-496,-3144,987,-1850,2527,-3160,-2094,507,-2758,-293,-2573,2884,105,2211,-2156,-1160,3129,-2503,-2701,-486,2996,-247,2510,1397,582,5650,655,-1628,3047,3887,},},{{-1242,1992,-4409,-3086,-3226,3397,737,4082,-2458,-1626,4650,150,298,703,3091,4459,1833,-232,-2768,5022,211,-91,-2087,2342,4578,1752,-2710,-1664,3097,-2198,-978,-5078,},},{{-1891,897,-3132,-1681,-1237,-2934,3286,-2801,429,1765,-1267,-205,-626,2765,573,2057,-834,4119,1537,-1386,-2475,494,2188,-3063,2418,-1768,4157,3277,-851,-601,2678,1479,},},{{3096,-978,-555,1100,-1308,-224,151,1243,1412,1568,-476,-794,1416,-289,117,-2286,1572,-1785,2425,226,-878,664,540,1425,-616,793,2523,-438,-755,-1260,-855,4449,},},{{1359,2997,-2252,2240,2596,1704,2047,533,1766,694,1676,-425,38,3394,-823,-1595,3239,3542,1822,-1487,543,-458,2989,1548,-129,2910,1128,1266,2622,-326,-495,6326,},},{{-1928,-4433,755,-4,1416,-2049,-2607,-2373,-2371,494,-1067,2119,1167,1174,-1052,-667,-254,400,789,-2686,652,-2541,138,-3095,-3943,-878,-1925,-526,-4051,-1433,-5276,1983,},},{{1773,-2026,4241,4507,3183,2301,-691,1045,-1696,1026,-1784,2314,2954,-1223,1658,1047,426,387,2120,86,4955,3730,-1484,2602,1060,388,472,1344,1125,4609,2826,2868,},},{{5393,-363,556,-3162,3069,-2053,2211,807,381,3283,239,-2645,-1640,4420,-1308,-62,-1304,1074,1412,369,-3429,-733,6557,-3297,364,-1118,-1721,3137,-2029,-2717,-139,9359,},},{{-1573,-321,-1378,-2366,-3825,5171,808,-1684,1774,-984,-453,-2289,-680,-1457,2311,455,-3158,2170,-1604,-261,-4420,-1389,577,-940,835,-4145,2321,-473,-255,-2304,335,1056,},},{{1487,-2907,-771,-1525,17,-1310,-873,-1226,2294,2968,-2500,671,-537,-301,-1569,1472,-616,1030,1315,-706,3603,-977,603,120,437,2409,2277,-2211,2481,3331,1355,2588,},},{{1348,-560,789,1234,576,1179,701,3719,1522,3761,-3566,1961,2096,-1078,-1463,156,2103,250,454,-2316,303,-296,-1787,-1485,3087,1161,3421,2367,-1037,2770,-828,2925,},},{{-2417,119,-264,-3953,-3568,-815,1015,-512,448,-1504,1612,-1230,-766,-3578,-901,-39,-1547,653,26,2085,700,-2035,-634,571,-259,675,-3718,-1059,-2349,-1762,-1230,-5014,},},{{700,-550,1142,822,-1591,-1668,-2760,810,-819,1797,-161,-961,-674,-3086,-1592,-1275,-355,1550,-573,1693,-1588,463,-2643,1079,1252,-1890,1240,-883,-144,-931,-578,-1742,},},{{4401,1774,2530,3589,4910,800,1323,696,2806,1820,18,939,1407,2161,1554,-855,4305,-581,285,-55,1324,-1364,4369,1451,2015,2638,-160,2037,1940,1247,-1729,6795,},},{{-719,-218,1474,-4834,1575,-442,1538,3082,-3369,-173,863,2446,-1709,2958,349,-1634,1255,505,2305,270,-2,-799,1099,730,737,377,681,-1422,-1771,-417,2383,3008,},},{{-961,1079,-1478,-2651,3351,-3213,-33,-1187,-193,705,-262,-1095,1578,938,-1065,485,567,-2535,-444,1214,792,2213,-79,-1551,-231,1300,-2748,1638,1861,-493,643,1613,},},},{{{-5301,2211,-102,305,-403,636,-1090,586,1111,-1863,-792,-996,232,1609,-835,-979,2557,3187,835,-1960,-914,-264,1098,-838,837,-896,2978,-1673,-3743,-341,1432,2625,},},{{-504,-1622,-3075,940,4119,-906,-3454,1439,1794,623,-4990,-2085,1280,3422,94,-1772,2362,3745,-711,1140,-1895,4233,229,485,-2757,456,1245,1193,512,-4377,4249,2741,},},{{3949,2460,982,-2598,-1026,3780,565,-2328,409,3428,770,-838,-1465,900,3043,144,-1866,2372,519,4049,-1927,-755,817,211,491,-2449,-809,2019,2990,542,-3802,-1351,},},{{-2568,2780,2395,-1766,-1357,745,901,-1618,987,559,2342,961,-2328,-67,364,-147,-395,-403,-1837,1200,-34,-2790,2644,-1758,-1349,-738,833,-845,245,281,113,-371,},},{{-74,-1065,700,610,41,-152,-111,2743,1958,785,23,-1135,325,274,2257,1042,2087,57,2923,1633,-2950,742,6,-1749,2343,909,-603,1678,-2628,941,1104,69,},},{{2538,-3060,3648,-4241,-37,3088,-782,-383,-4095,2342,-986,2943,-3409,-265,2560,2462,-1301,-2354,3195,-3681,3712,-2508,1019,1744,3833,-2760,-1648,4011,325,2219,-193,510,},},{{1284,1092,2514,1155,1948,-515,-2321,704,1633,-231,-1416,1147,1209,407,-165,-2893,460,-371,-330,-164,-973,-1024,28,3291,-208,5,-1950,559,2001,-1254,1875,2906,},},{{-3703,1097,-3182,995,362,1556,-1406,-49,-1898,-1833,598,-3733,1110,-874,463,-3441,1239,1145,727,-288,-2144,2984,69,142,-1897,477,2063,-828,-585,-1559,3881,-87,},},{{4703,-3331,-1972,507,4571,450,-452,516,-1018,2101,-3890,-1996,8,5858,-333,1425,886,125,5891,-4324,-298,-289,2339,536,-747,3249,-1731,2439,-2536,1137,2094,3078,},},{{-3344,-1346,-1688,1290,-18,615,-2320,-494,1902,-3883,1526,-2169,1876,-834,-2469,-553,2707,3223,-4264,-987,-2462,2343,179,-2418,504,2375,-239,-2555,1964,-2396,2084,1101,},},{{-1735,-653,-705,-784,1001,-1718,4364,-1846,3553,2568,-2465,-188,1939,434,-3707,2558,-1751,1397,1570,1607,1048,-1124,-1416,-2911,3451,-368,-626,-3224,1611,-709,891,-2332,},},{{1600,-620,73,-3339,6355,672,1426,-3548,2091,3589,-2457,-1197,-811,6210,1062,757,1141,-319,3611,1318,-3599,-1285,5002,1647,2403,-1669,-957,740,97,-3560,-2191,3807,},},{{-3273,-2092,-1114,-212,-1510,-420,-1416,-2969,-324,-1657,-1605,345,228,586,-1114,759,-3075,-861,435,1190,-3161,-2645,-1384,-736,-21,-3323,1118,-1568,-1264,-1386,302,-1486,},},{{-962,840,1287,-535,-926,1796,2545,1457,573,-1103,-1327,-1374,-2696,-120,1019,1680,-1315,292,823,1924,-984,514,2043,-1286,3658,1757,2137,-430,-162,1773,178,930,},},{{984,-4166,-2015,918,4007,-1725,-2110,6119,775,2504,-4165,-1098,1428,1596,1347,-1432,3969,2497,2534,-1980,-1475,2257,2334,2540,-2047,6745,1607,947,-2300,-3244,5531,2745,},},{{-2741,512,-330,2040,682,2829,938,-714,-3389,-2802,2826,-1214,202,-1017,4151,-3405,514,-7,-3775,2474,163,886,-1316,1296,-2753,989,-1836,-2174,1522,1766,1007,1385,},},},{{{-2617,-3825,3100,-1661,3086,-1414,1187,2138,5849,-3201,-1753,-369,-2295,1496,-2128,2119,3191,2878,-367,-2404,536,-3304,2452,-1333,3094,1123,832,-1109,-922,-1542,-5739,-44,},},{{2247,5159,5418,1960,89,7936,4404,5532,111,3323,1730,2362,-1491,930,2091,2723,5420,1988,3653,2929,4560,-2009,-436,5042,5488,5734,4208,4227,3681,6831,413,-208,},},{{-933,2538,4621,-2036,1534,-1680,5587,1648,4256,-1427,2020,663,592,-86,-1212,3881,720,1879,-39,2131,943,-879,-530,-2399,3582,-402,3451,-3317,2621,-492,-812,-471,},},{{-5173,-2016,505,-3604,818,-3078,-3873,-375,480,-1807,-2444,2350,-318,-815,-3012,-2865,-1849,3116,-4097,-3320,-2360,-265,-1972,-3610,-3775,-2541,-170,-4091,-2028,-2346,-1691,-2148,},},{{-1222,3694,-1108,-3324,-2482,-816,-672,691,425,-509,2564,-167,-81,-2909,-496,-96,-281,2745,-1541,3705,-3034,-1696,-891,230,-1111,-1726,2836,-1648,4221,-1409,-2257,-1140,},},{{-1135,-1874,2896,-801,5251,1916,444,879,2474,-437,564,360,1818,2793,1900,900,511,2534,-416,68,-568,1651,4535,3494,2978,-1567,3605,-618,-1202,2570,-1366,6359,},},{{-1827,-741,2640,3014,3933,978,107,3602,-158,-3398,-39,2686,752,4230,-432,-98,817,69,-1764,-425,1997,335,2797,1659,831,1958,1845,-2601,768,143,-181,2816,},},{{-2511,-818,1636,39,1742,-884,3346,813,1732,-1439,-295,1313,336,1582,-2875,1868,1377,4644,-2593,1198,1132,-852,1268,-2514,4954,530,1631,-1067,1498,-345,-3633,849,},},{{-2427,-1504,-3756,653,-3788,-395,-358,-950,-1557,-3464,-2566,-3420,-2409,-1519,-2649,112,-70,-1462,-1816,-1025,-5252,-3730,-4484,-297,1388,-3975,-2520,-1820,-2747,-7295,-1171,-6481,},},{{-5162,-2150,-831,800,-1442,638,-2677,-252,725,-1678,-677,-2608,-816,-448,-362,-2635,294,-2929,-2468,-3629,-1871,-539,-1468,-2653,-398,-4192,-677,-2992,-3449,-1585,-1161,-3455,},},{{-3238,-288,291,-1467,-2701,-1103,-659,3578,3134,-2376,1832,1059,-1317,-1587,-1736,1887,2993,2585,799,1299,-731,-3147,877,-4644,-1024,-105,1148,2924,1284,-124,-3183,3045,},},{{-752,-1535,5112,-304,-1147,-1676,215,4717,1053,-1264,752,371,-350,-738,-163,3395,1533,-2700,-1428,539,698,-2965,-2818,-1973,1427,721,-4443,958,193,3187,-2865,-140,},},{{-298,148,2170,740,-2435,-1222,858,-949,-152,-1158,240,1905,530,-362,-1758,1686,-383,-519,-2524,-2126,1138,-1010,-711,201,613,-1537,-1050,-923,555,-301,151,-262,},},{{-2028,835,1619,-3990,2349,718,438,2672,1531,839,-136,1451,291,-598,-1214,1557,2382,618,-1529,1292,-1887,1373,1942,-1053,331,-842,1557,601,-2843,-1905,1111,1976,},},{{-235,-2459,-2792,2840,-2937,2752,-852,2211,-2294,-15,-3620,-3434,-1791,-2798,159,700,1974,-1733,115,-3798,-3543,559,735,1228,836,399,2199,-1715,-1108,-4463,-1695,-663,},},{{-4282,761,-2083,1129,-1446,418,-320,-316,856,-4662,-2050,-1387,1141,-2404,30,-2946,86,-923,-2605,-1830,246,60,961,-889,-963,362,1808,-4218,-2466,-1880,2077,-2156,},},},{{{359,-3941,-5,-1015,3395,-3788,3652,-1934,-87,-933,-4206,2334,-819,3130,-2602,466,-630,19,474,-97,318,-739,842,-1225,615,-1855,272,3728,-105,3486,629,8306,},},{{-4530,2392,-8431,-4178,-7469,-318,-2287,-3102,-7079,-1038,2305,-5244,-328,-2584,-913,-2568,-1652,-2531,381,-744,-3917,-1239,-208,-3139,-2693,-2592,-4536,1195,-1459,-8818,-1017,-2700,},},{{-3978,-1754,1659,-4639,-1987,-3992,75,-1805,497,77,1372,2174,-1253,-1057,337,1704,-2771,1186,-1719,379,-352,-1546,-1479,-2396,2239,-587,642,-1047,-1712,1229,-1744,516,},},{{6176,3658,1815,1830,2322,1412,1784,1881,1767,1323,130,1850,-1272,2137,289,1088,-2576,-2108,1345,147,150,2071,858,2239,3108,1221,1709,3966,-448,1469,2195,4867,},},{{7376,3919,-417,1696,3491,1830,1769,-1380,606,4181,2813,-2170,-73,1518,-483,740,-3697,-739,2444,1225,-3157,1997,3912,-517,121,-764,1759,2175,1717,-4029,-95,7653,},},{{-2325,-5721,-1113,-1534,99,-5914,-176,570,-3149,984,-2223,-598,-2100,1328,-2528,-1128,2034,-4826,3660,-4918,-205,-3830,233,-4119,-1097,-2875,-6246,-683,-7835,-1421,-7116,-1673,},},{{2105,1328,-1203,-57,-551,2581,2133,-36,83,1556,-461,-514,-415,1098,98,2017,2241,1473,-249,2638,-539,2915,1884,1837,2433,501,-80,310,2608,2231,5623,2264,},},{{4485,-1264,1643,-1045,1536,-792,-1427,-4033,2587,2528,-3069,593,-77,3192,1862,-738,-3230,1134,4217,-1685,-967,-1134,2569,484,-1215,-1551,-612,2315,-1952,-3365,1495,5241,},},{{-3045,5367,-165,-2092,-2503,1498,1022,-1122,-2281,752,1537,2401,-833,1074,2486,-390,-1860,-359,1188,2257,1156,-1478,-904,2680,-675,-2756,323,792,2768,1850,170,1548,},},{{5882,3317,-391,-1441,3284,1848,1732,1211,335,3042,1974,2224,914,5263,2144,-70,-1083,1742,2223,-211,-839,-41,2805,2908,1707,844,2832,4919,5027,449,3134,7195,},},{{496,-801,-1212,40,1467,2323,338,-2493,563,932,109,-1060,2971,1361,2230,-868,-54,-1874,416,-1002,177,2162,3080,2442,-878,-976,1887,2400,-1582,-2257,3431,6983,},},{{-6160,-521,240,-7087,-5792,-220,2052,-1614,-3094,-3801,2032,-1075,-1914,-3953,599,2951,-3127,312,-3063,-1073,303,-3258,-3857,893,3298,-5446,-2151,714,-360,-41,-5551,-3660,},},{{1623,-139,-1003,-1106,-2042,-1118,-457,386,620,366,-1459,1072,-503,604,-2732,-1165,-1571,-1183,-108,-1952,-700,-2488,-1484,-647,-1730,174,-50,988,-2942,-755,132,-1675,},},{{6406,4439,-49,3096,3897,1125,115,2376,-205,2393,-494,2554,1672,1652,920,1094,2538,448,-1097,1744,2806,1412,3877,-1485,-2137,3790,756,3320,1059,1717,4956,7410,},},{{2665,5021,458,2797,-607,2147,2360,2618,-888,1840,1840,63,804,90,422,-149,272,-2337,4044,929,629,641,34,2939,-1104,-1912,-578,169,-2040,681,2836,-588,},},{{3824,2170,-101,1175,1891,-1052,1186,-199,323,870,1169,1537,48,1728,-467,1047,-643,657,1059,-309,-89,1465,25,-1611,-1433,-387,-3,1447,1027,-1066,782,2924}}}};

const int16_t weight_3[512] = {2269,-1243,362,-6081,649,-5710,1017,-2572,-1305,-3068,3135,-4424,3285,-5929,-3555,1139,-1969,2639,-11229,6854,4101,3681,-2113,2257,880,1604,-2382,-2820,-7612,1793,3090,-1969,-1057,-1580,5139,-75,-3918,1750,1010,-2041,-2592,5384,1832,5188,2983,5189,1296,5520,1256,-1996,-2292,-1213,-1693,205,-5954,6641,-2055,294,2768,-4762,6584,-3905,-881,-7257,-3363,-371,4344,-579,3508,4653,12151,-207,4281,-1896,2620,2869,1673,-4142,2250,-4903,-3401,4575,-5995,-3499,-174,-1162,3705,1536,-6702,4429,1662,2945,3829,-892,1867,-1449,12804,-433,-3643,10377,3275,2980,2592,3774,2540,3209,-3586,168,-9383,-6003,1050,3198,-4211,-7986,2571,3857,-2326,-370,-1392,-5083,-4904,98,-2879,665,1280,-5167,-2002,2014,-315,-3096,9032,5643,-882,-604,-1847,1123,-1721,-5732,-5519,-1538,2770,3377,10169,-6574,-4459,1966,800,436,2291,7721,8994,4172,1106,-4542,-3097,-3903,2768,3055,-9759,1682,7608,10670,-5473,1781,-83,2686,-1520,906,-524,5131,-3303,7072,3256,-11373,-2091,173,12618,-6296,304,5710,1505,-7042,-537,5345,-2038,-4098,-2056,-1261,9187,-5902,-2896,9158,-1933,2863,-4916,-767,-3213,1535,1482,1526,-4189,1576,8863,6217,-334,1836,-2064,2325,-109,984,4897,-2516,5173,1611,-3673,-8313,-3693,2220,3372,-604,-2082,-134,909,-1591,6796,1704,-3083,-358,-602,-2752,-4171,8896,9279,2217,-7626,4290,5954,4758,-1252,2905,2145,-2898,-4915,2820,5308,24,-3952,-5436,-5049,-575,-419,3780,-7545,-103,-3304,-765,5551,10091,6448,10606,3831,3282,242,384,-1884,29,-6570,3695,-5761,-3456,362,-4163,3555,-1951,-4425,4264,-806,5113,3818,7472,7620,7991,-4284,-4187,10924,4999,1546,-195,3190,5863,-6138,1728,1269,-971,7301,3302,777,2773,-3286,-2880,-1482,3275,-1679,1070,-3592,5561,-847,-875,-1348,-9333,5539,-3585,-3250,8638,-3283,-2908,3954,-6105,-5091,28,-1359,7139,2193,3447,-233,3846,-4292,-2941,3256,4786,2103,1456,6661,6949,5873,-5259,-1539,162,-6776,-1077,5273,-4833,2053,764,-1000,-5303,-12373,6845,1887,-4840,964,1575,-2264,831,-3086,-86,547,1223,10938,7232,-5234,7062,-572,-3053,-1964,392,272,2188,-849,4960,-7229,-1829,1917,-8532,-2977,-6554,-5437,-919,-4630,-4721,4690,-6354,-5421,-4775,657,-858,2998,-7233,-1855,-2945,-171,-2686,-5635,47,4690,8048,-2771,923,10455,-233,-277,3111,3939,2547,8130,-73,4993,6773,-1970,3145,2253,3460,878,5145,6300,3549,-6203,2095,129,787,1289,-8240,8924,-1489,5153,-846,-2949,-1614,1731,-9102,-3351,-173,33,5703,-158,-1032,-5306,-65,4753,920,-3908,-1144,3629,8985,2114,-1599,-1664,-2091,8435,1801,557,5789,-2053,7814,5129,2231,-3323,-3848,-1890,4736,3085,-3557,6497,-605,-3602,-2185,-8423,-4943,3660,176,-670,-2139,-4079,-1080,-6822,-3711,-3457,-5491,-1055,-369,-815,6282,-5461,-1007,-71,3480,-2195,2936,1070,8389,-732,4060,-4159,389,-9891,-7054,1813,1250,-2555,384,-8148,-6981,4944,-3615,11383,9085,-3101,1825,-6321,-2590,-1788,-2213};
const int16_t weight_4[512] = {1260,-4860,6652,-470,2192,1016,2256,-1250,-398,-6975,-2768,-3052,7548,5358,1729,-4045,-1430,347,-724,4000,-4883,-542,-3453,458,4228,1848,2708,-6167,3135,10506,3504,2311,-240,-1026,-1744,-4752,-587,1402,-5247,6495,1225,1122,-7066,151,1611,5187,-869,-1912,-1648,839,-2570,-2319,5651,-3768,-8560,-1301,353,-5230,6093,-1070,1980,-2519,-6976,-9955,6479,1488,4623,-2518,-1673,2004,1037,-3172,-4847,-3335,1335,3021,-5867,7511,212,8736,82,-5122,-3098,3800,5650,-2740,1596,-2974,466,395,-7452,-8700,-659,-6142,5825,-12146,4738,5746,4357,4718,556,-4496,198,-975,2708,8363,-5237,620,3293,-3027,461,1591,1597,-4431,3480,2806,-473,-655,-5731,5326,7785,-745,-5456,4466,-4838,4224,2963,-842,-3300,3356,-2466,3491,-607,1017,3791,-6510,-10798,-78,466,655,107,-1202,3049,-7279,-4128,6968,9233,4840,-15048,2889,8678,-2407,-4881,-270,7691,-447,-3170,4147,286,1292,-2539,7056,-7439,2113,-161,8251,1141,-5897,-1058,-744,-6488,3291,-554,-282,2853,91,5815,-4528,-1275,-172,2454,-4934,-1349,5054,2812,4044,4562,-609,-6544,-3474,-1027,938,-3007,-753,1542,3865,2309,42,3304,-7848,-2092,-306,1326,2991,-3456,-3506,-1087,-3068,-128,424,-3795,-7494,1773,-2035,3736,-1379,-2685,11256,2164,-599,903,1384,1961,-7425,701,-813,-2579,1059,169,3358,-2226,-4409,8701,-1067,1893,-2613,3015,-691,-51,-1642,1726,61,925,-1411,6871,-11563,3957,1503,-211,-4274,-2179,-1133,2380,-934,-5571,-2229,-6233,2935,1235,1546,-2120,-2391,2029,-1651,-6419,1117,2144,-477,8360,-398,-810,1097,644,-652,1706,365,5397,3881,4533,4248,3758,-4918,-6260,-4277,-2267,-2300,1513,705,-7596,5,2031,-113,-9065,3917,5754,3806,2753,3667,-3341,1792,-792,-5903,3376,-1782,-614,14551,-2768,22,-2556,-2455,-3337,-5895,369,4066,4928,-711,371,-2303,2214,-6754,3880,-4300,724,6347,3679,-5136,-686,-4227,-1171,3319,46,8363,1888,612,1476,-2525,2298,-8932,-7561,-1634,-1780,2671,-140,-3206,814,1287,-8561,-5021,1747,1543,6787,-2682,-763,-3200,-5216,-671,1998,-3098,3884,-1296,9075,1771,-522,1486,-5318,-3979,1557,2245,-2992,3131,2107,-2712,571,-9850,5002,-7411,2241,-106,2078,-5661,-1798,-2322,-2509,-11231,1613,120,-4452,8225,-3994,2680,5418,2456,1398,-104,-1568,1804,2996,-437,687,-3794,-4901,-6222,-9011,-1536,1237,4505,10520,720,4465,5938,-2667,5051,3825,3347,6957,915,8783,-4840,-991,1746,681,-11278,-2396,-4961,-9451,1184,-4942,750,188,3902,3144,-3329,658,8249,-3811,-1397,5744,-4781,-1727,-150,4974,-1548,1598,-3932,3781,-4338,-795,6226,2588,-6221,-3986,4059,641,-4273,3278,440,-2405,2332,-3025,-1900,1426,121,3746,-3502,351,2964,-1265,4216,-915,-9196,9950,-15865,-1779,-2159,-9296,3069,-4965,19,-365,-1231,1224,5944,-5286,7032,-3473,-10725,12158,6604,694,10060,-1713,4649,2301,-2161,2865,3617,1369,4228,-129,-3157,3914,-440,-1216,2478,-1194,-4397,-2841,729,3660,-2976,-1398,-11117};
const int16_t weight_5[6][256] = {{-1016,995,-1429,1463,3452,-3185,3045,-1,-3422,-2018,1322,1055,2203,-3889,3172,4678,-1808,-4346,-491,-8,-3693,612,-4826,-7567,-1959,-3880,-4980,-105,1120,-1032,2735,-464,1391,5472,2898,-2219,-1535,1565,1344,-1867,1178,2826,-183,1770,-3308,-2408,319,2783,-3807,1822,-4009,-229,5768,-1994,1404,551,-1360,-170,122,5895,3001,-1816,-2508,3887,548,-6160,336,2299,3565,-5387,812,-1854,-1139,-2283,-4356,-26,-3565,525,-946,1836,-4529,3145,2081,-798,1672,3266,4055,-136,1955,623,1088,635,6061,1582,4079,-105,-1631,2249,-3588,-4426,90,90,3298,-847,440,2662,769,-3968,-2805,-4270,3124,-3149,1412,7652,1233,611,2366,-2385,772,-3493,-7556,1678,-2505,-2144,4914,-4775,353,-1156,-1198,5727,-1515,-2381,3385,2974,1355,989,-3246,997,-2670,-171,-6307,-1224,-6562,-4165,-1461,-1906,-1682,-2858,3635,-1658,-1943,-2498,-3337,-206,2082,-5719,829,-771,3199,400,-2268,-2071,1141,465,-2574,-1790,-970,1055,-1045,3589,-2782,-1586,-5486,118,789,-2420,-2043,-324,2101,-1321,6452,923,-661,833,-346,3643,-647,-573,6727,-34,-2906,-1104,-2444,-2006,-63,-1713,-2625,637,-151,-548,-2862,-4154,-700,-5870,4858,-2283,1695,-1791,-1842,-483,1784,-1948,798,101,3431,-281,3125,-3630,-194,-1134,-2487,1305,4938,2635,1988,4917,345,336,3940,309,2968,6667,-347,-1422,745,-4045,-360,-2454,-5425,-3281,2179,-3683,2743,-1763,1931,-4500,-3048,-19,437,-2166,888,256,5375,-2390,-2539,3304,},{-774,-1110,1647,3114,-4893,573,168,2107,1797,1073,-981,4592,-7480,5010,-1909,-1778,-1130,1831,-633,827,449,-2612,1405,-2189,2309,3317,1163,1307,1593,3715,4294,-3086,5786,-2765,-3235,1321,1998,945,3011,-1724,-2309,-3575,-2176,-1881,-203,2349,2328,-2587,-1843,-736,-2250,5685,-6064,-2134,3315,2024,4606,-3663,1493,1362,-398,-1951,3594,1013,5574,5664,-258,4481,-1775,1144,2886,1088,-171,-454,4200,-2405,-2232,1400,-982,1296,-38,782,-1226,3447,1806,1394,-417,-1958,1386,443,3274,944,63,799,-385,-1231,301,-1356,697,4568,-2402,-768,1758,2656,2366,-1927,-5614,5166,2293,2605,2842,655,6611,-3563,-1171,2901,1183,2727,1399,-1412,4058,-897,358,2213,-5282,-1249,2916,2022,1768,3326,1183,7306,-2165,-880,5501,-169,3030,-1919,922,-4769,-2503,-647,339,-170,-802,-2237,-755,3715,1903,778,-31,672,-5684,-272,-2727,238,970,580,-2260,1894,-448,2649,-1207,-791,-176,391,966,-2828,384,-3603,-1645,2332,1156,-138,513,-915,904,-1748,-792,-426,-2770,1728,2126,1108,1824,-919,-3289,4134,-6301,2261,-2049,2271,462,-425,-400,-1425,-2854,-1371,-2088,-104,620,3750,1496,-963,-1460,-1585,6010,1942,60,962,-2438,3724,-439,2832,473,-1374,-1057,-1450,-1603,-757,1639,943,-398,-2489,-3491,2133,-1714,4625,2023,1115,4974,73,3724,748,-1601,6292,714,-1989,2709,1033,2341,2155,-3851,2782,-2740,-2582,1069,-522,4428,-2112,4,955,-4489,3403,4700,-735,},{-239,-2062,-3438,-5502,-4803,-2187,-691,-3053,1760,2712,-900,-4641,2670,714,-639,-1104,3387,534,-2051,1029,-2898,-2071,-1498,-1664,-322,-1332,-297,2221,1462,3759,2019,1743,2800,842,4710,8658,5754,-3033,-1148,634,304,-762,841,-2954,-1277,774,849,-2919,201,-1916,-2548,-1127,-5037,-2458,-3508,-1586,-866,1,-1288,-6334,-1106,9001,2857,1061,202,5656,132,-4742,311,-3225,4350,392,303,1391,-1996,2026,-1109,-137,-3721,399,3730,-854,-603,-791,1144,319,-1293,-1584,-4390,225,1581,362,-1957,-4042,-880,-2290,-985,-3396,438,5506,5560,-1726,971,-2625,2539,5377,5507,-2730,-1586,5308,-522,4498,-1240,-2882,4527,271,3412,-3570,1473,-2020,656,-4786,-2032,-898,-520,1814,7883,-3421,3813,-2313,5108,2105,1796,3438,2506,-75,1283,-2439,-694,859,-3473,-1753,-4067,-1008,-391,-1088,-1050,-982,787,-2173,-1205,533,8752,2223,2801,2194,-1852,-1104,-1683,-1815,385,1471,-1289,808,-4045,-1334,-2437,-13,-6499,-3752,-3177,1082,-570,-2530,730,-138,73,1323,-460,-197,-4554,935,2832,-724,2820,-1163,5267,-2069,-1668,-230,-399,879,-688,73,-2273,598,737,-778,2288,-1750,1498,2966,5054,4238,-3283,-287,-1675,-2971,4492,-321,-1555,978,-925,650,-3257,-1705,-35,-2448,-589,-126,665,-4747,-5000,-792,-901,866,-4343,-443,-3659,953,1306,-4863,-1254,359,4386,702,-1908,4022,5762,5460,-1034,46,3338,-1089,2950,5507,5060,3121,-4720,3112,-1156,52,-2535,702,1840,-2980,},{-540,-3742,2440,979,3462,-3,-205,8511,-2339,-3359,-94,-2921,3380,-954,1119,667,-238,-634,800,2318,-423,-2108,2186,4169,128,489,7371,-1422,-3827,-265,-2738,-308,-5378,1177,549,-4360,-4652,-1607,-802,1489,-361,1207,-1504,3437,4267,1423,718,-617,3675,-412,-1110,-3657,3886,3675,-3393,-47,-1608,-417,-1544,-4009,758,-3285,652,-3244,-4827,-4932,-1680,-5473,-593,-1140,2280,-391,1473,-881,5384,-1675,-1340,-2387,-2677,740,1598,-759,1042,-2003,-460,-3644,-221,2782,354,109,-2751,-1851,-2021,2057,-847,819,-652,3550,2494,262,-2705,2017,-2080,-1836,-2628,-2030,3386,54,3632,-971,-3799,-2033,-1813,715,939,-4107,-1720,-1189,-137,1566,765,1001,-331,-305,854,3375,-3882,-1553,-4114,-2534,-2848,-4406,-1759,-3147,-2422,381,199,-1800,-1139,-478,8978,-5294,4724,7751,-513,3745,-1279,-1087,-1588,-1463,-1985,-2217,-402,1782,-177,1498,-276,-823,-3219,-441,422,1385,813,3278,4841,721,3360,1192,-1192,4536,-75,1480,4465,-1124,1051,392,-296,-1833,-2586,-1902,3383,-2075,-1981,-2620,-2479,-3592,476,1102,2818,-2771,2232,-1966,1396,-562,-77,1048,6163,-1877,234,-862,-250,413,-3563,-1791,-5094,-922,-4595,2425,-3108,-323,1536,-1671,1754,-1207,665,1073,-3780,6206,1724,720,2879,-920,389,-2764,639,-3138,3259,-2552,-3546,-2094,-2858,-2319,-1017,-678,1188,-544,1899,575,-2969,-800,-733,-925,1074,-335,4697,-2424,-321,-856,1192,1381,-2523,500,-416,-3497,-762,3940,},{-246,2997,149,4363,5528,1475,2819,-863,-404,-1204,-2238,711,-1644,1580,863,-2348,783,-2238,-943,-2023,3908,1560,3783,2824,216,1594,-5497,-1330,-2597,-4428,-3100,-3688,-3881,-796,-3462,-5085,-4378,-2096,-3415,-2578,4952,-3132,4321,-1334,-3173,-1534,-2030,1338,1195,5439,711,547,1877,-992,1463,-4521,-2634,-2030,493,3526,1579,-2568,-675,-2222,-5453,-3695,-3406,3127,2456,-2255,-2747,-1263,-1194,988,-1214,-680,2266,1012,5585,720,168,-2198,478,-3173,1053,-980,3399,3446,880,-2680,-5837,160,-4244,2259,-295,1829,3118,1910,-1385,-2704,544,-275,-3005,939,-2103,-1895,140,-2464,-1218,-4663,-345,-1718,2793,-781,-74,1270,-6913,-77,-3904,-2949,1139,7090,5670,1729,1832,947,-4689,-2897,26,-1044,-4118,-7685,-3223,-304,-1906,-3369,-4325,-2457,1106,2232,1939,6363,6577,803,2467,-2038,-2952,-1591,2060,-829,-2028,-1689,1374,1534,-634,523,-347,-859,-372,2000,16,-1909,-1053,-5,-830,-74,2423,-150,5518,1848,3169,-3041,1580,-925,-1371,-1920,-1479,1342,-696,1724,2623,-1274,-983,1509,51,734,-3471,-548,2207,-1088,1571,-2449,-360,-533,1708,1497,-1816,-1773,1336,-1070,-3052,-4191,-7134,1640,4679,1878,979,-3762,-1947,3631,-2597,-4291,-1463,-2947,6344,-954,2758,2412,-1422,1445,-1999,-2064,865,1571,1350,-139,107,-350,2250,-823,-1365,-1550,1639,-227,-1133,-37,-3792,1762,-106,732,-1388,1233,-1175,100,-3457,-1782,678,-595,1031,1632,-554,-2214,5711,-3995,-1731,-969,},{465,2367,5348,-3011,-2100,2997,-699,-3687,2585,-208,3158,-2072,-14,-891,183,-42,-1616,2342,1023,3915,1153,5410,-3943,3844,-492,-91,61,-1590,2669,1716,-2642,3434,-3357,-4557,-2497,933,2123,2658,573,172,577,1213,-2062,2594,408,1071,-1422,2475,1337,-1870,7769,-3523,-1078,776,-731,1583,1035,3908,1253,-2346,-1913,-1886,-231,-1212,-1281,956,3397,-1519,-1460,6546,-1088,2278,-395,457,1744,364,2101,151,144,-935,-1490,685,263,2941,-795,1733,-1095,-3276,1552,-3265,4253,2853,513,-1016,-873,-2243,2036,-1227,5507,264,-2365,-1438,-1906,1118,-377,1426,258,2820,1171,5083,-3182,8667,-3041,-2565,42,-440,3648,5993,725,6204,2223,-4772,3600,-501,-512,2907,-1759,3289,-2822,-2370,4038,-1156,-1154,-2139,-3483,1596,710,2711,5540,915,-230,4544,-3684,1534,2682,108,2552,-536,505,878,1506,674,-1149,588,-26,798,255,954,1622,-1754,702,-171,-2319,2379,2510,2337,-2742,2837,-2278,-740,2459,-32,781,1178,-398,748,640,-1158,2753,881,-703,-452,-1794,1144,112,4,-2112,2252,-3082,-781,587,-1452,-603,2782,-424,-483,-3597,5209,220,2796,-254,547,388,1678,1095,518,-1623,2171,27,-872,262,1949,-805,3356,-4795,2130,-242,-806,4061,4482,-2497,4727,-2398,684,2409,-1971,-266,2889,-2751,2660,-1170,2010,-1248,1697,-1745,-1156,487,-693,-568,-1443,-1583,1366,-1249,-1127,-3544,951,-398,-496,947,-1855,-117,1673,-3526,1730,-2051,416,},};

const int16_t bias_1[10] = {-10123,-6963,-6590,-13639,-8132,-11192,-8884,-11444,-3823,-13781,};
const int16_t bias_2[16] = {2809,436,1297,-2646,-1427,4474,-640,1782,4237,-1860,-853,4445,1825,-4420,1635,-1116,};
const int16_t bias_3[512] = {3307,3098,3358,3111,3321,3194,3254,3580,3277,3238,3187,3342,3239,3025,3305,3096,3354,3217,3542,3218,2889,3382,3193,3365,3125,3210,3420,3317,3304,3338,3451,3306,3356,3285,3288,3304,3279,3111,3177,3220,3469,3297,3276,3275,3208,3951,3260,3463,3562,3436,3364,3247,3271,3283,3277,3259,3255,3277,3331,3244,3202,3124,3259,3387,3325,3254,3244,3225,2750,3574,3259,3420,3203,3278,3208,3249,3307,3266,3322,3263,3155,3166,3257,3467,3281,3387,3360,3202,3293,3353,3221,3162,3067,3217,2824,3214,3393,3115,3588,3828,3012,3494,3564,3668,3495,3177,3228,3481,3205,3290,3245,3306,3302,3164,3141,3239,3257,3545,3214,3432,3490,3551,3615,2822,3169,3532,3223,3532,2958,3063,3356,3392,3352,3320,3189,3568,3113,3391,3046,3275,3222,3002,3314,3503,3273,2880,3425,3130,3649,3522,3184,3438,3068,3072,3169,3292,3410,3339,3177,3213,3301,3274,3192,3130,3318,3235,3385,3189,3335,3606,3257,3281,3290,3203,3366,3183,3468,3588,3310,3032,3158,3220,3228,3337,3317,3449,3401,3374,3438,3076,3432,2688,3099,3322,3242,3670,3337,3826,3159,3220,3416,3292,3379,3431,3075,3369,3335,3516,3087,3610,2901,3370,3064,3187,3364,3465,3331,3252,3035,3848,2766,3380,3078,3510,3600,2888,3008,3465,3072,3344,3077,2794,3404,3074,3325,3140,3202,3538,3240,3397,3318,2982,3066,3399,3190,3457,3256,2917,3569,3453,3247,3362,3423,3363,2986,3286,3279,3044,3178,3271,3192,3432,3575,2938,3295,3119,2931,3315,3106,3220,3096,3353,2747,3522,3179,3320,3243,3260,3661,3253,3562,3515,3276,3778,2718,3417,2943,3077,3324,3729,3218,3348,3084,3146,3484,3289,3109,3789,2924,3762,3319,3230,3336,2735,3650,2991,2919,3974,2954,2907,3372,3022,2791,3371,2854,4406,3396,3567,3659,3325,3541,3669,3328,3400,2825,3370,3292,3591,3772,3317,3055,3624,3319,3574,3194,3433,3355,3482,2946,2879,3008,3351,3152,3294,3384,3041,3317,3426,2911,3672,3723,3150,3607,3291,3186,3796,3171,3127,3171,3097,3209,3195,2904,3072,3058,3190,3252,3401,3259,3308,3288,3558,3235,2975,3375,3073,3310,3897,2894,3658,2967,3227,3452,3424,3142,3227,3156,3030,3442,3221,2827,3060,3127,3564,3099,3416,3109,3198,3477,3264,2806,3536,3126,3368,3477,3326,3260,3156,3157,3254,3560,3399,3247,3741,3836,3404,3635,3294,3363,3446,3070,3364,3319,3189,3234,3478,2765,3536,2863,3283,3379,3107,3523,3286,3005,3561,3522,3233,3609,3062,3275,3362,3216,3316,3355,3217,3241,3231,3469,3364,3187,3241,3255,3410,3117,3018,3275,3276,3379,3739,3279,3346,3069,3136,3257,3199,3551,3242,3165,3244,3190,3194,3156,3411,3245,3377,2975,3555,3146,3218,3321,3146,3045,3722,3346,3936,3378,3309,3431,3344,3227,3277,3147,3646,3542,3188,3159,3401,3361,3337,2988,3523,3224,3606,3464,3339,3331,3173,3517,3233,3508,3115,};
#pragma PERSISTENT(bias_4)
const int16_t bias_4[256] = {3210,2913,3097,3453,3422,3118,3303,3612,3406,3263,3105,3299,3060,3513,3077,2952,3265,3368,3107,3822,3334,3831,3677,3045,3288,3296,3231,2991,3493,3185,3809,3076,3368,3465,3352,3028,3218,3629,2893,3377,3315,3247,3272,3210,3098,3145,3322,3236,3241,3255,3206,3264,3265,3276,3276,3369,3249,3402,3415,3368,3132,3026,3195,3141,3281,3185,3247,3281,3237,3420,3386,3091,3391,3209,3475,3249,3116,3085,3513,3124,3429,3361,2819,3246,3299,3650,3239,3519,3228,3364,3161,3090,3103,3277,3630,3154,3330,2984,3062,3005,3357,3313,3479,3282,2943,3609,3399,3136,3622,3224,3678,3018,3144,3327,3494,3563,3260,3445,2984,3264,3279,3268,3230,3273,3270,3277,3240,3475,3415,3212,3098,3250,3204,3253,3273,3288,3264,3321,3084,3299,3161,3498,3564,2899,3317,3218,2912,3498,3423,3324,3557,3286,3062,3134,3117,3427,3469,3580,3148,2801,3562,3533,3521,3394,3551,3530,2797,3216,3395,3262,3381,3185,2907,3346,2899,3291,3274,3457,3311,3475,3437,3001,3441,3263,3272,3265,3345,3193,3275,3299,3208,3272,3280,3336,3319,3259,3251,3213,3240,3512,3079,3262,3019,2853,3178,3347,3373,3402,3464,2746,3473,3371,3833,3061,3447,3415,3693,3834,3332,3069,3324,3112,3698,3244,3273,3363,3858,3397,3389,2922,3308,3373,3093,3642,2935,3295,3156,3169,3194,3295,3232,3289,3252,3291,3278,3060,3226,3375,3403,3568,3421,3071,3380,3386,3518,3489};
#pragma PERSISTENT(bias_5)
const int16_t bias_5[6] = {860,-1658,-1751,179,306,2773,};

#pragma PERSISTENT(f_input)
const int16_t f_input[9][1][128]= {{{0,0,3,13,16,4,32,-8,0,0,-1,4,14,22,3,32,-8,2,0,-1,6,15,16,2,32,-9,4,0,-1,6,14,11,0,32,-9,4,0,-1,5,12,12,0,31,-8,3,0,-1,5,9,10,0,31,-8,4,-1,0,5,9,8,-1,29,-8,4,-2,0,5,9,8,-1,28,-7,4,-2,0,5,8,2,0,29,-8,4,-2,0,5,7,0,1,29,-8,4,0,0,4,8,3,0,31,-7,3,0,0,4,8,2,0,31,-8,3,0,-1,4,9,2,0,30,-8,4,0,-1,4,9,1,0,31,-9,4,0,-1,},},{{4,8,0,0,31,-8,4,0,0,4,8,1,0,31,-8,4,0,0,4,7,1,0,31,-7,4,0,0,3,6,1,0,30,-8,4,0,0,3,7,1,0,30,-8,4,0,0,3,6,1,0,30,-7,4,-1,0,3,6,0,0,30,-7,4,0,0,3,7,0,0,30,-8,4,0,0,2,6,0,0,31,-8,4,0,0,2,7,1,0,31,-7,4,0,0,2,6,0,0,30,-7,4,0,0,3,7,-1,0,30,-8,4,0,0,2,7,-3,0,30,-8,4,-1,0,2,7,-7,1,29,-8,4,-1,0,2,5,},},{{-8,4,29,-7,4,-1,0,1,3,-6,4,29,-7,3,0,0,1,2,-2,3,30,-7,3,0,0,1,1,0,2,30,-8,4,0,0,1,1,-1,1,30,-8,4,0,0,0,3,-1,1,31,-8,3,0,0,0,5,0,2,31,-8,3,0,0,0,10,0,0,31,-8,3,0,0,0,11,0,0,31,-8,3,-1,0,0,9,-1,1,29,-8,3,0,0,0,7,-1,1,30,-8,3,0,0,0,6,1,1,31,-7,3,0,0,0,4,5,1,31,-7,3,0,0,0,4,4,1,31,-8,3,0,0,0,4,0,1,},},{{31,-8,3,0,0,0,3,0,0,30,-8,4,0,0,0,3,0,1,30,-8,4,0,0,0,4,0,1,30,-8,4,0,0,0,3,-1,1,30,-8,4,0,0,0,4,-1,2,30,-8,3,0,0,0,7,-1,1,31,-8,3,0,0,0,7,0,1,31,-8,3,0,0,0,6,-1,1,30,-8,3,0,0,0,3,-1,1,30,-8,3,0,0,0,5,-2,1,30,-8,3,0,0,0,7,-2,1,31,-8,4,1,0,0,8,-1,1,31,-8,4,0,0,0,8,0,0,31,-8,3,0,0,-1,4,0,0,30,-8,},},{{2,0,0,-1,1,0,0,30,-8,2,0,0,-1,3,-2,2,29,-8,3,0,0,0,3,-1,1,30,-8,3,0,0,0,3,-1,1,30,-8,3,0,0,0,4,-2,2,30,-8,3,0,0,0,5,-1,1,30,-8,3,0,0,0,5,-1,1,31,-8,3,0,0,0,5,-1,1,31,-8,3,0,0,0,5,-2,1,30,-7,3,0,0,-1,4,-4,1,30,-7,3,0,0,-1,2,-3,1,31,-8,3,0,0,-1,2,-2,1,31,-8,3,0,0,0,3,-2,1,31,-8,3,0,0,0,4,-1,1,31,-8,3,0,},},{{0,0,3,0,0,31,-8,3,0,0,-1,2,1,0,31,-8,3,0,0,0,3,5,0,31,-8,4,1,0,0,4,8,0,31,-8,4,0,0,0,2,7,1,31,-8,4,0,0,0,1,2,1,30,-7,4,-1,0,0,2,-1,1,28,-8,5,0,0,0,2,0,1,29,-8,5,0,0,0,2,1,1,31,-8,4,0,0,0,2,0,0,30,-8,5,0,0,0,2,0,0,30,-8,4,0,0,0,2,0,0,31,-8,4,0,0,0,2,0,0,30,-8,5,0,0,0,2,0,0,30,-8,5,0,0,0,},},{{2,0,0,30,-8,5,0,0,0,2,0,0,30,-8,5,0,0,0,2,0,0,30,-8,4,0,0,0,2,0,0,30,-8,4,0,0,0,2,0,1,30,-8,4,0,0,0,2,0,1,30,-8,4,0,0,0,2,-1,1,30,-8,4,0,0,0,2,-1,1,30,-8,4,0,0,0,2,-1,1,30,-8,4,0,0,0,2,-2,1,30,-8,4,0,0,0,2,-2,2,30,-8,4,0,0,0,2,-2,2,30,-8,4,0,0,0,2,-2,2,30,-8,4,0,0,0,3,-2,2,30,-8,4,0,0,0,3,-2,},},{{2,30,-8,4,0,0,0,2,-2,2,30,-8,4,0,0,0,2,-3,2,30,-8,4,0,0,0,2,-2,2,30,-8,4,0,0,0,2,-2,2,30,-8,4,0,0,0,3,-2,2,30,-8,4,0,0,0,3,-2,2,30,-8,4,0,0,0,4,-3,2,30,-8,4,0,0,0,4,-3,2,30,-8,4,0,0,0,4,-3,2,30,-8,4,0,0,0,4,-3,1,30,-8,4,0,0,0,4,-3,1,30,-8,4,0,0,0,4,-3,1,30,-8,4,0,0,0,3,-3,1,30,-7,4,0,0,0,3,-3,1,30,},},{{-7,4,0,0,0,2,-3,2,30,-8,4,0,0,0,2,-3,1,30,-8,4,0,0,0,1,-3,1,30,-8,5,0,0,0,1,-3,1,30,-7,4,0,0,0,0,-3,1,30,-7,4,0,0,0,0,-3,2,30,-8,4,0,0,0,0,-3,1,30,-8,4,0,0,0,0,-3,1,30,-8,4,0,0,0,0,-3,1,30,-8,4,0,0,0,0,-2,1,30,-8,4,0,0,0,0,-2,1,30,-8,4,0,0,0,0,-2,1,30,-8,4,0,0,0,0,-2,0,30,-8,4,0,0,0,0,-2,0,30,-8,4}}};

#pragma PERSISTENT(f_layer)
int16_t f_layer[10][1][97]={0};


#pragma PERSISTENT(f_layer2)
int16_t f_layer2[10][1][48]={0};


#pragma PERSISTENT(f_layer3)
int16_t f_layer3[16][1][17]={0};


#pragma PERSISTENT(f_layer3_1)
int16_t f_layer3_1[16][1][8]={0};

#pragma PERSISTENT(f_layer4)
int16_t f_layer4[1024]={0};

